<?xml version="1.0"?>
<opencv_storage>
<cascade>
  <stageType>BOOST</stageType>
  <featureType>HAAR</featureType>
  <height>24</height>
  <width>24</width>
  <stageParams>
    <boostType>GAB</boostType>
    <minHitRate>9.9500000476837158e-01</minHitRate>
    <maxFalseAlarm>5.0000000000000000e-01</maxFalseAlarm>
    <weightTrimRate>9.4999999999999996e-01</weightTrimRate>
    <maxDepth>1</maxDepth>
    <maxWeakCount>100</maxWeakCount></stageParams>
  <featureParams>
    <maxCatCount>0</maxCatCount>
    <featSize>1</featSize>
    <mode>BASIC</mode></featureParams>
  <stageNum>4</stageNum>
  <stages>
    <!-- stage 0 -->
    <_>
      <maxWeakCount>2</maxWeakCount>
      <stageThreshold>-6.7374390363693237e-01</stageThreshold>
      <weakClassifiers>
        <_>
          <internalNodes>
            0 -1 4 -2.9642377048730850e-02</internalNodes>
          <leafValues>
            7.6470589637756348e-01 -9.3777775764465332e-01</leafValues></_>
        <_>
          <internalNodes>
            0 -1 2 -1.6301628202199936e-02</internalNodes>
          <leafValues>
            2.6403388381004333e-01 -1.</leafValues></_></weakClassifiers></_>
    <!-- stage 1 -->
    <_>
      <maxWeakCount>2</maxWeakCount>
      <stageThreshold>-2.7815902233123779e-01</stageThreshold>
      <weakClassifiers>
        <_>
          <internalNodes>
            0 -1 6 -1.6756317019462585e-01</internalNodes>
          <leafValues>
            1. -8.9655172824859619e-01</leafValues></_>
        <_>
          <internalNodes>
            0 -1 8 -3.3339109271764755e-02</internalNodes>
          <leafValues>
            6.1839270591735840e-01 -1.</leafValues></_></weakClassifiers></_>
    <!-- stage 2 -->
    <_>
      <maxWeakCount>2</maxWeakCount>
      <stageThreshold>-1.5117761492729187e-01</stageThreshold>
      <weakClassifiers>
        <_>
          <internalNodes>
            0 -1 0 -8.8616371154785156e-02</internalNodes>
          <leafValues>
            8.1818181276321411e-01 -9.8181819915771484e-01</leafValues></_>
        <_>
          <internalNodes>
            0 -1 7 -6.0053588822484016e-04</internalNodes>
          <leafValues>
            8.3902442455291748e-01 -9.6935945749282837e-01</leafValues></_></weakClassifiers></_>
    <!-- stage 3 -->
    <_>
      <maxWeakCount>3</maxWeakCount>
      <stageThreshold>-1.0235165357589722e+00</stageThreshold>
      <weakClassifiers>
        <_>
          <internalNodes>
            0 -1 1 -1.4949189126491547e-01</internalNodes>
          <leafValues>
            1. -9.1304349899291992e-01</leafValues></_>
        <_>
          <internalNodes>
            0 -1 5 -1.1557813733816147e-01</internalNodes>
          <leafValues>
            7.8446853160858154e-01 -8.9030003547668457e-01</leafValues></_>
        <_>
          <internalNodes>
            0 -1 3 -1.9599106907844543e-01</internalNodes>
          <leafValues>
            7.7982693910598755e-01 -8.4307307004928589e-01</leafValues></_></weakClassifiers></_></stages>
  <features>
    <_>
      <rects>
        <_>
          1 2 20 10 -1.</_>
        <_>
          1 7 20 5 2.</_></rects>
      <tilted>0</tilted></_>
    <_>
      <rects>
        <_>
          1 10 12 8 -1.</_>
        <_>
          7 10 6 8 2.</_></rects>
      <tilted>0</tilted></_>
    <_>
      <rects>
        <_>
          1 13 14 2 -1.</_>
        <_>
          8 13 7 2 2.</_></rects>
      <tilted>0</tilted></_>
    <_>
      <rects>
        <_>
          2 0 21 19 -1.</_>
        <_>
          9 0 7 19 3.</_></rects>
      <tilted>0</tilted></_>
    <_>
      <rects>
        <_>
          4 14 8 4 -1.</_>
        <_>
          8 14 4 4 2.</_></rects>
      <tilted>0</tilted></_>
    <_>
      <rects>
        <_>
          5 11 12 9 -1.</_>
        <_>
          11 11 6 9 2.</_></rects>
      <tilted>0</tilted></_>
    <_>
      <rects>
        <_>
          6 6 9 18 -1.</_>
        <_>
          6 12 9 6 3.</_></rects>
      <tilted>0</tilted></_>
    <_>
      <rects>
        <_>
          12 6 9 2 -1.</_>
        <_>
          12 7 9 1 2.</_></rects>
      <tilted>0</tilted></_>
    <_>
      <rects>
        <_>
          18 8 6 12 -1.</_>
        <_>
          18 14 6 6 2.</_></rects>
      <tilted>0</tilted></_></features></cascade>
</opencv_storage>
